digraph Tree {
node [shape=box, style="filled, rounded", color="black", fontname=helvetica] ;
edge [fontname=helvetica] ;
0 [label="X[1] <= -4.13\ngini = 0.75\nsamples = 300\nvalue = [75, 75, 75, 75]", fillcolor="#ffffff"] ;
1 [label="X[0] <= -0.32\ngini = 0.5\nsamples = 150\nvalue = [0, 75, 75, 0]", fillcolor="#ffffff"] ;
0 -> 1 [labeldistance=2.5, labelangle=45, headlabel="True"] ;
2 [label="gini = 0.0\nsamples = 75\nvalue = [0, 0, 75, 0]", fillcolor="#399de5"] ;
1 -> 2 ;
3 [label="gini = 0.0\nsamples = 75\nvalue = [0, 75, 0, 0]", fillcolor="#47e539"] ;
1 -> 3 ;
4 [label="X[0] <= 2.07\ngini = 0.5\nsamples = 150\nvalue = [75, 0, 0, 75]", fillcolor="#ffffff"] ;
0 -> 4 [labeldistance=2.5, labelangle=-45, headlabel="False"] ;
5 [label="X[1] <= 1.16\ngini = 0.17\nsamples = 62\nvalue = [56, 0, 0, 6]", fillcolor="#e88e4e"] ;
4 -> 5 ;
6 [label="X[1] <= 0.53\ngini = 0.1\nsamples = 59\nvalue = [56, 0, 0, 3]", fillcolor="#e68844"] ;
5 -> 6 ;
7 [label="X[1] <= 0.09\ngini = 0.04\nsamples = 54\nvalue = [53, 0, 0, 1]", fillcolor="#e5833d"] ;
6 -> 7 ;
8 [label="gini = 0.0\nsamples = 48\nvalue = [48, 0, 0, 0]", fillcolor="#e58139"] ;
7 -> 8 ;
9 [label="X[1] <= 0.14\ngini = 0.28\nsamples = 6\nvalue = [5, 0, 0, 1]", fillcolor="#ea9a61"] ;
7 -> 9 ;
10 [label="gini = 0.0\nsamples = 1\nvalue = [0, 0, 0, 1]", fillcolor="#d739e5"] ;
9 -> 10 ;
11 [label="gini = 0.0\nsamples = 5\nvalue = [5, 0, 0, 0]", fillcolor="#e58139"] ;
9 -> 11 ;
12 [label="X[0] <= 0.97\ngini = 0.48\nsamples = 5\nvalue = [3, 0, 0, 2]", fillcolor="#f6d5bd"] ;
6 -> 12 ;
13 [label="gini = 0.0\nsamples = 3\nvalue = [3, 0, 0, 0]", fillcolor="#e58139"] ;
12 -> 13 ;
14 [label="gini = 0.0\nsamples = 2\nvalue = [0, 0, 0, 2]", fillcolor="#d739e5"] ;
12 -> 14 ;
15 [label="gini = 0.0\nsamples = 3\nvalue = [0, 0, 0, 3]", fillcolor="#d739e5"] ;
5 -> 15 ;
16 [label="X[1] <= 0.24\ngini = 0.34\nsamples = 88\nvalue = [19, 0, 0, 69]", fillcolor="#e270ec"] ;
4 -> 16 ;
17 [label="X[0] <= 3.13\ngini = 0.5\nsamples = 34\nvalue = [17, 0, 0, 17]", fillcolor="#ffffff"] ;
16 -> 17 ;
18 [label="X[0] <= 2.26\ngini = 0.33\nsamples = 19\nvalue = [15, 0, 0, 4]", fillcolor="#eca36e"] ;
17 -> 18 ;
19 [label="gini = 0.0\nsamples = 4\nvalue = [0, 0, 0, 4]", fillcolor="#d739e5"] ;
18 -> 19 ;
20 [label="gini = 0.0\nsamples = 15\nvalue = [15, 0, 0, 0]", fillcolor="#e58139"] ;
18 -> 20 ;
21 [label="X[1] <= -1.55\ngini = 0.23\nsamples = 15\nvalue = [2, 0, 0, 13]", fillcolor="#dd57e9"] ;
17 -> 21 ;
22 [label="gini = 0.0\nsamples = 1\nvalue = [1, 0, 0, 0]", fillcolor="#e58139"] ;
21 -> 22 ;
23 [label="X[1] <= -0.29\ngini = 0.13\nsamples = 14\nvalue = [1, 0, 0, 13]", fillcolor="#da48e7"] ;
21 -> 23 ;
24 [label="X[1] <= -0.37\ngini = 0.32\nsamples = 5\nvalue = [1, 0, 0, 4]", fillcolor="#e16aec"] ;
23 -> 24 ;
25 [label="gini = 0.0\nsamples = 4\nvalue = [0, 0, 0, 4]", fillcolor="#d739e5"] ;
24 -> 25 ;
26 [label="gini = 0.0\nsamples = 1\nvalue = [1, 0, 0, 0]", fillcolor="#e58139"] ;
24 -> 26 ;
27 [label="gini = 0.0\nsamples = 9\nvalue = [0, 0, 0, 9]", fillcolor="#d739e5"] ;
23 -> 27 ;
28 [label="X[0] <= 2.41\ngini = 0.07\nsamples = 54\nvalue = [2, 0, 0, 52]", fillcolor="#d941e6"] ;
16 -> 28 ;
29 [label="X[0] <= 2.35\ngini = 0.3\nsamples = 11\nvalue = [2, 0, 0, 9]", fillcolor="#e065eb"] ;
28 -> 29 ;
30 [label="gini = 0.0\nsamples = 8\nvalue = [0, 0, 0, 8]", fillcolor="#d739e5"] ;
29 -> 30 ;
31 [label="X[1] <= 0.5\ngini = 0.44\nsamples = 3\nvalue = [2, 0, 0, 1]", fillcolor="#f2c09c"] ;
29 -> 31 ;
32 [label="gini = 0.0\nsamples = 1\nvalue = [0, 0, 0, 1]", fillcolor="#d739e5"] ;
31 -> 32 ;
33 [label="gini = 0.0\nsamples = 2\nvalue = [2, 0, 0, 0]", fillcolor="#e58139"] ;
31 -> 33 ;
34 [label="gini = 0.0\nsamples = 43\nvalue = [0, 0, 0, 43]", fillcolor="#d739e5"] ;
28 -> 34 ;
}