digraph Tree {
node [shape=box, style="filled, rounded", color="black", fontname=helvetica] ;
edge [fontname=helvetica] ;
0 [label="X[3] <= 1.5\ngini = 0.48\nsamples = 714\nvalue = [424, 290]", fillcolor="#f7d7c0"] ;
1 [label="X[0] <= 2.5\ngini = 0.37\nsamples = 261\nvalue = [64, 197]", fillcolor="#79bded"] ;
0 -> 1 [labeldistance=2.5, labelangle=45, headlabel="True"] ;
2 [label="X[2] <= 2.5\ngini = 0.11\nsamples = 159\nvalue = [9, 150]", fillcolor="#45a3e7"] ;
1 -> 2 ;
3 [label="X[0] <= 1.5\ngini = 0.5\nsamples = 2\nvalue = [1, 1]", fillcolor="#ffffff"] ;
2 -> 3 ;
4 [label="gini = 0.0\nsamples = 1\nvalue = [1, 0]", fillcolor="#e58139"] ;
3 -> 4 ;
5 [label="gini = 0.0\nsamples = 1\nvalue = [0, 1]", fillcolor="#399de5"] ;
3 -> 5 ;
6 [label="X[1] <= 28.86\ngini = 0.1\nsamples = 157\nvalue = [8, 149]", fillcolor="#44a2e6"] ;
2 -> 6 ;
7 [label="X[1] <= 28.23\ngini = 0.18\nsamples = 68\nvalue = [7, 61]", fillcolor="#50a8e8"] ;
6 -> 7 ;
8 [label="X[2] <= 56.0\ngini = 0.16\nsamples = 67\nvalue = [6, 61]", fillcolor="#4ca7e8"] ;
7 -> 8 ;
9 [label="X[2] <= 23.5\ngini = 0.14\nsamples = 65\nvalue = [5, 60]", fillcolor="#49a5e7"] ;
8 -> 9 ;
10 [label="gini = 0.0\nsamples = 14\nvalue = [0, 14]", fillcolor="#399de5"] ;
9 -> 10 ;
11 [label="X[2] <= 27.5\ngini = 0.18\nsamples = 51\nvalue = [5, 46]", fillcolor="#4fa8e8"] ;
9 -> 11 ;
12 [label="X[2] <= 25.5\ngini = 0.4\nsamples = 11\nvalue = [3, 8]", fillcolor="#83c2ef"] ;
11 -> 12 ;
13 [label="X[1] <= 13.75\ngini = 0.24\nsamples = 7\nvalue = [1, 6]", fillcolor="#5aade9"] ;
12 -> 13 ;
14 [label="gini = 0.5\nsamples = 2\nvalue = [1, 1]", fillcolor="#ffffff"] ;
13 -> 14 ;
15 [label="gini = 0.0\nsamples = 5\nvalue = [0, 5]", fillcolor="#399de5"] ;
13 -> 15 ;
16 [label="X[1] <= 17.43\ngini = 0.5\nsamples = 4\nvalue = [2, 2]", fillcolor="#ffffff"] ;
12 -> 16 ;
17 [label="gini = 0.0\nsamples = 2\nvalue = [0, 2]", fillcolor="#399de5"] ;
16 -> 17 ;
18 [label="gini = 0.0\nsamples = 2\nvalue = [2, 0]", fillcolor="#e58139"] ;
16 -> 18 ;
19 [label="X[2] <= 37.0\ngini = 0.09\nsamples = 40\nvalue = [2, 38]", fillcolor="#43a2e6"] ;
11 -> 19 ;
20 [label="gini = 0.0\nsamples = 23\nvalue = [0, 23]", fillcolor="#399de5"] ;
19 -> 20 ;
21 [label="X[2] <= 39.0\ngini = 0.21\nsamples = 17\nvalue = [2, 15]", fillcolor="#53aae8"] ;
19 -> 21 ;
22 [label="gini = 0.0\nsamples = 1\nvalue = [1, 0]", fillcolor="#e58139"] ;
21 -> 22 ;
23 [label="X[1] <= 25.96\ngini = 0.12\nsamples = 16\nvalue = [1, 15]", fillcolor="#46a4e7"] ;
21 -> 23 ;
24 [label="gini = 0.0\nsamples = 11\nvalue = [0, 11]", fillcolor="#399de5"] ;
23 -> 24 ;
25 [label="X[1] <= 26.12\ngini = 0.32\nsamples = 5\nvalue = [1, 4]", fillcolor="#6ab6ec"] ;
23 -> 25 ;
26 [label="X[2] <= 43.0\ngini = 0.44\nsamples = 3\nvalue = [1, 2]", fillcolor="#9ccef2"] ;
25 -> 26 ;
27 [label="gini = 0.0\nsamples = 1\nvalue = [0, 1]", fillcolor="#399de5"] ;
26 -> 27 ;
28 [label="X[2] <= 47.0\ngini = 0.5\nsamples = 2\nvalue = [1, 1]", fillcolor="#ffffff"] ;
26 -> 28 ;
29 [label="gini = 0.0\nsamples = 1\nvalue = [1, 0]", fillcolor="#e58139"] ;
28 -> 29 ;
30 [label="gini = 0.0\nsamples = 1\nvalue = [0, 1]", fillcolor="#399de5"] ;
28 -> 30 ;
31 [label="gini = 0.0\nsamples = 2\nvalue = [0, 2]", fillcolor="#399de5"] ;
25 -> 31 ;
32 [label="X[1] <= 18.52\ngini = 0.5\nsamples = 2\nvalue = [1, 1]", fillcolor="#ffffff"] ;
8 -> 32 ;
33 [label="gini = 0.0\nsamples = 1\nvalue = [1, 0]", fillcolor="#e58139"] ;
32 -> 33 ;
34 [label="gini = 0.0\nsamples = 1\nvalue = [0, 1]", fillcolor="#399de5"] ;
32 -> 34 ;
35 [label="gini = 0.0\nsamples = 1\nvalue = [1, 0]", fillcolor="#e58139"] ;
7 -> 35 ;
36 [label="X[1] <= 149.04\ngini = 0.02\nsamples = 89\nvalue = [1, 88]", fillcolor="#3b9ee5"] ;
6 -> 36 ;
37 [label="gini = 0.0\nsamples = 71\nvalue = [0, 71]", fillcolor="#399de5"] ;
36 -> 37 ;
38 [label="X[1] <= 152.51\ngini = 0.1\nsamples = 18\nvalue = [1, 17]", fillcolor="#45a3e7"] ;
36 -> 38 ;
39 [label="X[2] <= 23.5\ngini = 0.5\nsamples = 2\nvalue = [1, 1]", fillcolor="#ffffff"] ;
38 -> 39 ;
40 [label="gini = 0.0\nsamples = 1\nvalue = [0, 1]", fillcolor="#399de5"] ;
39 -> 40 ;
41 [label="gini = 0.0\nsamples = 1\nvalue = [1, 0]", fillcolor="#e58139"] ;
39 -> 41 ;
42 [label="gini = 0.0\nsamples = 16\nvalue = [0, 16]", fillcolor="#399de5"] ;
38 -> 42 ;
43 [label="X[1] <= 20.8\ngini = 0.5\nsamples = 102\nvalue = [55, 47]", fillcolor="#fbede2"] ;
1 -> 43 ;
44 [label="X[2] <= 16.5\ngini = 0.49\nsamples = 79\nvalue = [35, 44]", fillcolor="#d7ebfa"] ;
43 -> 44 ;
45 [label="X[1] <= 15.49\ngini = 0.32\nsamples = 20\nvalue = [4, 16]", fillcolor="#6ab6ec"] ;
44 -> 45 ;
46 [label="X[1] <= 13.94\ngini = 0.39\nsamples = 15\nvalue = [4, 11]", fillcolor="#81c1ee"] ;
45 -> 46 ;
47 [label="X[1] <= 10.8\ngini = 0.28\nsamples = 12\nvalue = [2, 10]", fillcolor="#61b1ea"] ;
46 -> 47 ;
48 [label="X[2] <= 14.5\ngini = 0.41\nsamples = 7\nvalue = [2, 5]", fillcolor="#88c4ef"] ;
47 -> 48 ;
49 [label="X[1] <= 7.54\ngini = 0.44\nsamples = 3\nvalue = [2, 1]", fillcolor="#f2c09c"] ;
48 -> 49 ;
50 [label="gini = 0.0\nsamples = 1\nvalue = [0, 1]", fillcolor="#399de5"] ;
49 -> 50 ;
51 [label="gini = 0.0\nsamples = 2\nvalue = [2, 0]", fillcolor="#e58139"] ;
49 -> 51 ;
52 [label="gini = 0.0\nsamples = 4\nvalue = [0, 4]", fillcolor="#399de5"] ;
48 -> 52 ;
53 [label="gini = 0.0\nsamples = 5\nvalue = [0, 5]", fillcolor="#399de5"] ;
47 -> 53 ;
54 [label="X[2] <= 14.75\ngini = 0.44\nsamples = 3\nvalue = [2, 1]", fillcolor="#f2c09c"] ;
46 -> 54 ;
55 [label="gini = 0.0\nsamples = 2\nvalue = [2, 0]", fillcolor="#e58139"] ;
54 -> 55 ;
56 [label="gini = 0.0\nsamples = 1\nvalue = [0, 1]", fillcolor="#399de5"] ;
54 -> 56 ;
57 [label="gini = 0.0\nsamples = 5\nvalue = [0, 5]", fillcolor="#399de5"] ;
45 -> 57 ;
58 [label="X[2] <= 36.5\ngini = 0.5\nsamples = 59\nvalue = [31, 28]", fillcolor="#fcf3ec"] ;
44 -> 58 ;
59 [label="X[1] <= 18.63\ngini = 0.5\nsamples = 52\nvalue = [25, 27]", fillcolor="#f0f8fd"] ;
58 -> 59 ;
60 [label="X[1] <= 17.6\ngini = 0.5\nsamples = 49\nvalue = [25, 24]", fillcolor="#fefaf7"] ;
59 -> 60 ;
61 [label="X[1] <= 16.4\ngini = 0.5\nsamples = 46\nvalue = [22, 24]", fillcolor="#eff7fd"] ;
60 -> 61 ;
62 [label="X[1] <= 7.7\ngini = 0.5\nsamples = 44\nvalue = [22, 22]", fillcolor="#ffffff"] ;
61 -> 62 ;
63 [label="X[1] <= 7.0\ngini = 0.32\nsamples = 5\nvalue = [1, 4]", fillcolor="#6ab6ec"] ;
62 -> 63 ;
64 [label="gini = 0.0\nsamples = 1\nvalue = [1, 0]", fillcolor="#e58139"] ;
63 -> 64 ;
65 [label="gini = 0.0\nsamples = 4\nvalue = [0, 4]", fillcolor="#399de5"] ;
63 -> 65 ;
66 [label="X[2] <= 32.5\ngini = 0.5\nsamples = 39\nvalue = [21, 18]", fillcolor="#fbede3"] ;
62 -> 66 ;
67 [label="X[2] <= 19.5\ngini = 0.49\nsamples = 38\nvalue = [21, 17]", fillcolor="#fae7d9"] ;
66 -> 67 ;
68 [label="X[1] <= 12.15\ngini = 0.47\nsamples = 8\nvalue = [3, 5]", fillcolor="#b0d8f5"] ;
67 -> 68 ;
69 [label="X[1] <= 7.81\ngini = 0.28\nsamples = 6\nvalue = [1, 5]", fillcolor="#61b1ea"] ;
68 -> 69 ;
70 [label="gini = 0.0\nsamples = 1\nvalue = [1, 0]", fillcolor="#e58139"] ;
69 -> 70 ;
71 [label="gini = 0.0\nsamples = 5\nvalue = [0, 5]", fillcolor="#399de5"] ;
69 -> 71 ;
72 [label="gini = 0.0\nsamples = 2\nvalue = [2, 0]", fillcolor="#e58139"] ;
68 -> 72 ;
73 [label="X[2] <= 21.5\ngini = 0.48\nsamples = 30\nvalue = [18, 12]", fillcolor="#f6d5bd"] ;
67 -> 73 ;
74 [label="gini = 0.0\nsamples = 4\nvalue = [4, 0]", fillcolor="#e58139"] ;
73 -> 74 ;
75 [label="X[2] <= 27.5\ngini = 0.5\nsamples = 26\nvalue = [14, 12]", fillcolor="#fbede3"] ;
73 -> 75 ;
76 [label="X[2] <= 26.5\ngini = 0.49\nsamples = 16\nvalue = [7, 9]", fillcolor="#d3e9f9"] ;
75 -> 76 ;
77 [label="X[1] <= 7.89\ngini = 0.5\nsamples = 13\nvalue = [7, 6]", fillcolor="#fbede3"] ;
76 -> 77 ;
78 [label="X[2] <= 23.5\ngini = 0.32\nsamples = 5\nvalue = [1, 4]", fillcolor="#6ab6ec"] ;
77 -> 78 ;
79 [label="gini = 0.0\nsamples = 3\nvalue = [0, 3]", fillcolor="#399de5"] ;
78 -> 79 ;
80 [label="X[2] <= 25.5\ngini = 0.5\nsamples = 2\nvalue = [1, 1]", fillcolor="#ffffff"] ;
78 -> 80 ;
81 [label="gini = 0.0\nsamples = 1\nvalue = [1, 0]", fillcolor="#e58139"] ;
80 -> 81 ;
82 [label="gini = 0.0\nsamples = 1\nvalue = [0, 1]", fillcolor="#399de5"] ;
80 -> 82 ;
83 [label="X[2] <= 23.5\ngini = 0.38\nsamples = 8\nvalue = [6, 2]", fillcolor="#eeab7b"] ;
77 -> 83 ;
84 [label="gini = 0.0\nsamples = 3\nvalue = [3, 0]", fillcolor="#e58139"] ;
83 -> 84 ;
85 [label="X[1] <= 15.98\ngini = 0.48\nsamples = 5\nvalue = [3, 2]", fillcolor="#f6d5bd"] ;
83 -> 85 ;
86 [label="X[1] <= 12.35\ngini = 0.5\nsamples = 4\nvalue = [2, 2]", fillcolor="#ffffff"] ;
85 -> 86 ;
87 [label="X[2] <= 25.5\ngini = 0.44\nsamples = 3\nvalue = [2, 1]", fillcolor="#f2c09c"] ;
86 -> 87 ;
88 [label="gini = 0.0\nsamples = 2\nvalue = [2, 0]", fillcolor="#e58139"] ;
87 -> 88 ;
89 [label="gini = 0.0\nsamples = 1\nvalue = [0, 1]", fillcolor="#399de5"] ;
87 -> 89 ;
90 [label="gini = 0.0\nsamples = 1\nvalue = [0, 1]", fillcolor="#399de5"] ;
86 -> 90 ;
91 [label="gini = 0.0\nsamples = 1\nvalue = [1, 0]", fillcolor="#e58139"] ;
85 -> 91 ;
92 [label="gini = 0.0\nsamples = 3\nvalue = [0, 3]", fillcolor="#399de5"] ;
76 -> 92 ;
93 [label="X[1] <= 8.67\ngini = 0.42\nsamples = 10\nvalue = [7, 3]", fillcolor="#f0b78e"] ;
75 -> 93 ;
94 [label="gini = 0.0\nsamples = 4\nvalue = [4, 0]", fillcolor="#e58139"] ;
93 -> 94 ;
95 [label="X[1] <= 9.57\ngini = 0.5\nsamples = 6\nvalue = [3, 3]", fillcolor="#ffffff"] ;
93 -> 95 ;
96 [label="gini = 0.0\nsamples = 1\nvalue = [0, 1]", fillcolor="#399de5"] ;
95 -> 96 ;
97 [label="X[2] <= 28.5\ngini = 0.48\nsamples = 5\nvalue = [3, 2]", fillcolor="#f6d5bd"] ;
95 -> 97 ;
98 [label="gini = 0.0\nsamples = 1\nvalue = [1, 0]", fillcolor="#e58139"] ;
97 -> 98 ;
99 [label="X[2] <= 31.0\ngini = 0.5\nsamples = 4\nvalue = [2, 2]", fillcolor="#ffffff"] ;
97 -> 99 ;
100 [label="X[1] <= 11.47\ngini = 0.44\nsamples = 3\nvalue = [1, 2]", fillcolor="#9ccef2"] ;
99 -> 100 ;
101 [label="gini = 0.0\nsamples = 1\nvalue = [1, 0]", fillcolor="#e58139"] ;
100 -> 101 ;
102 [label="gini = 0.0\nsamples = 2\nvalue = [0, 2]", fillcolor="#399de5"] ;
100 -> 102 ;
103 [label="gini = 0.0\nsamples = 1\nvalue = [1, 0]", fillcolor="#e58139"] ;
99 -> 103 ;
104 [label="gini = 0.0\nsamples = 1\nvalue = [0, 1]", fillcolor="#399de5"] ;
66 -> 104 ;
105 [label="gini = 0.0\nsamples = 2\nvalue = [0, 2]", fillcolor="#399de5"] ;
61 -> 105 ;
106 [label="gini = 0.0\nsamples = 3\nvalue = [3, 0]", fillcolor="#e58139"] ;
60 -> 106 ;
107 [label="gini = 0.0\nsamples = 3\nvalue = [0, 3]", fillcolor="#399de5"] ;
59 -> 107 ;
108 [label="X[2] <= 55.0\ngini = 0.24\nsamples = 7\nvalue = [6, 1]", fillcolor="#e9965a"] ;
58 -> 108 ;
109 [label="gini = 0.0\nsamples = 6\nvalue = [6, 0]", fillcolor="#e58139"] ;
108 -> 109 ;
110 [label="gini = 0.0\nsamples = 1\nvalue = [0, 1]", fillcolor="#399de5"] ;
108 -> 110 ;
111 [label="X[2] <= 5.5\ngini = 0.23\nsamples = 23\nvalue = [20, 3]", fillcolor="#e99457"] ;
43 -> 111 ;
112 [label="X[2] <= 3.5\ngini = 0.48\nsamples = 5\nvalue = [3, 2]", fillcolor="#f6d5bd"] ;
111 -> 112 ;
113 [label="gini = 0.0\nsamples = 3\nvalue = [3, 0]", fillcolor="#e58139"] ;
112 -> 113 ;
114 [label="gini = 0.0\nsamples = 2\nvalue = [0, 2]", fillcolor="#399de5"] ;
112 -> 114 ;
115 [label="X[2] <= 34.0\ngini = 0.1\nsamples = 18\nvalue = [17, 1]", fillcolor="#e78845"] ;
111 -> 115 ;
116 [label="gini = 0.0\nsamples = 11\nvalue = [11, 0]", fillcolor="#e58139"] ;
115 -> 116 ;
117 [label="X[2] <= 38.5\ngini = 0.24\nsamples = 7\nvalue = [6, 1]", fillcolor="#e9965a"] ;
115 -> 117 ;
118 [label="gini = 0.0\nsamples = 1\nvalue = [0, 1]", fillcolor="#399de5"] ;
117 -> 118 ;
119 [label="gini = 0.0\nsamples = 6\nvalue = [6, 0]", fillcolor="#e58139"] ;
117 -> 119 ;
120 [label="X[2] <= 6.5\ngini = 0.33\nsamples = 453\nvalue = [360, 93]", fillcolor="#eca26c"] ;
0 -> 120 [labeldistance=2.5, labelangle=-45, headlabel="False"] ;
121 [label="X[0] <= 2.5\ngini = 0.44\nsamples = 24\nvalue = [8, 16]", fillcolor="#9ccef2"] ;
120 -> 121 ;
122 [label="gini = 0.0\nsamples = 10\nvalue = [0, 10]", fillcolor="#399de5"] ;
121 -> 122 ;
123 [label="X[1] <= 20.83\ngini = 0.49\nsamples = 14\nvalue = [8, 6]", fillcolor="#f8e0ce"] ;
121 -> 123 ;
124 [label="gini = 0.0\nsamples = 5\nvalue = [0, 5]", fillcolor="#399de5"] ;
123 -> 124 ;
125 [label="X[1] <= 31.33\ngini = 0.2\nsamples = 9\nvalue = [8, 1]", fillcolor="#e89152"] ;
123 -> 125 ;
126 [label="gini = 0.0\nsamples = 5\nvalue = [5, 0]", fillcolor="#e58139"] ;
125 -> 126 ;
127 [label="X[2] <= 2.5\ngini = 0.38\nsamples = 4\nvalue = [3, 1]", fillcolor="#eeab7b"] ;
125 -> 127 ;
128 [label="gini = 0.0\nsamples = 3\nvalue = [3, 0]", fillcolor="#e58139"] ;
127 -> 128 ;
129 [label="gini = 0.0\nsamples = 1\nvalue = [0, 1]", fillcolor="#399de5"] ;
127 -> 129 ;
130 [label="X[0] <= 1.5\ngini = 0.29\nsamples = 429\nvalue = [352, 77]", fillcolor="#eb9d64"] ;
120 -> 130 ;
131 [label="X[2] <= 53.0\ngini = 0.47\nsamples = 99\nvalue = [61, 38]", fillcolor="#f5cfb4"] ;
130 -> 131 ;
132 [label="X[1] <= 25.94\ngini = 0.5\nsamples = 77\nvalue = [42, 35]", fillcolor="#fbeade"] ;
131 -> 132 ;
133 [label="gini = 0.0\nsamples = 5\nvalue = [5, 0]", fillcolor="#e58139"] ;
132 -> 133 ;
134 [label="X[1] <= 27.14\ngini = 0.5\nsamples = 72\nvalue = [37, 35]", fillcolor="#fef8f4"] ;
132 -> 134 ;
135 [label="X[2] <= 43.5\ngini = 0.17\nsamples = 11\nvalue = [1, 10]", fillcolor="#4da7e8"] ;
134 -> 135 ;
136 [label="gini = 0.0\nsamples = 7\nvalue = [0, 7]", fillcolor="#399de5"] ;
135 -> 136 ;
137 [label="X[2] <= 46.5\ngini = 0.38\nsamples = 4\nvalue = [1, 3]", fillcolor="#7bbeee"] ;
135 -> 137 ;
138 [label="gini = 0.5\nsamples = 2\nvalue = [1, 1]", fillcolor="#ffffff"] ;
137 -> 138 ;
139 [label="gini = 0.0\nsamples = 2\nvalue = [0, 2]", fillcolor="#399de5"] ;
137 -> 139 ;
140 [label="X[1] <= 387.66\ngini = 0.48\nsamples = 61\nvalue = [36, 25]", fillcolor="#f7d8c2"] ;
134 -> 140 ;
141 [label="X[1] <= 134.64\ngini = 0.48\nsamples = 59\nvalue = [36, 23]", fillcolor="#f6d2b8"] ;
140 -> 141 ;
142 [label="X[2] <= 27.5\ngini = 0.49\nsamples = 54\nvalue = [31, 23]", fillcolor="#f8decc"] ;
141 -> 142 ;
143 [label="X[2] <= 24.5\ngini = 0.43\nsamples = 13\nvalue = [4, 9]", fillcolor="#91c9f1"] ;
142 -> 143 ;
144 [label="X[2] <= 17.5\ngini = 0.49\nsamples = 7\nvalue = [4, 3]", fillcolor="#f8e0ce"] ;
143 -> 144 ;
145 [label="gini = 0.0\nsamples = 2\nvalue = [0, 2]", fillcolor="#399de5"] ;
144 -> 145 ;
146 [label="X[2] <= 22.0\ngini = 0.32\nsamples = 5\nvalue = [4, 1]", fillcolor="#eca06a"] ;
144 -> 146 ;
147 [label="gini = 0.0\nsamples = 3\nvalue = [3, 0]", fillcolor="#e58139"] ;
146 -> 147 ;
148 [label="X[1] <= 71.28\ngini = 0.5\nsamples = 2\nvalue = [1, 1]", fillcolor="#ffffff"] ;
146 -> 148 ;
149 [label="gini = 0.0\nsamples = 1\nvalue = [0, 1]", fillcolor="#399de5"] ;
148 -> 149 ;
150 [label="gini = 0.0\nsamples = 1\nvalue = [1, 0]", fillcolor="#e58139"] ;
148 -> 150 ;
151 [label="gini = 0.0\nsamples = 6\nvalue = [0, 6]", fillcolor="#399de5"] ;
143 -> 151 ;
152 [label="X[1] <= 115.44\ngini = 0.45\nsamples = 41\nvalue = [27, 14]", fillcolor="#f2c2a0"] ;
142 -> 152 ;
153 [label="X[1] <= 30.25\ngini = 0.43\nsamples = 39\nvalue = [27, 12]", fillcolor="#f1b991"] ;
152 -> 153 ;
154 [label="gini = 0.0\nsamples = 5\nvalue = [5, 0]", fillcolor="#e58139"] ;
153 -> 154 ;
155 [label="X[1] <= 32.51\ngini = 0.46\nsamples = 34\nvalue = [22, 12]", fillcolor="#f3c6a5"] ;
153 -> 155 ;
156 [label="gini = 0.0\nsamples = 3\nvalue = [0, 3]", fillcolor="#399de5"] ;
155 -> 156 ;
157 [label="X[2] <= 49.5\ngini = 0.41\nsamples = 31\nvalue = [22, 9]", fillcolor="#f0b58a"] ;
155 -> 157 ;
158 [label="X[2] <= 47.5\ngini = 0.44\nsamples = 27\nvalue = [18, 9]", fillcolor="#f2c09c"] ;
157 -> 158 ;
159 [label="X[2] <= 43.0\ngini = 0.35\nsamples = 22\nvalue = [17, 5]", fillcolor="#eda673"] ;
158 -> 159 ;
160 [label="X[2] <= 36.5\ngini = 0.46\nsamples = 14\nvalue = [9, 5]", fillcolor="#f3c7a7"] ;
159 -> 160 ;
161 [label="X[1] <= 37.81\ngini = 0.35\nsamples = 9\nvalue = [7, 2]", fillcolor="#eca572"] ;
160 -> 161 ;
162 [label="gini = 0.0\nsamples = 1\nvalue = [0, 1]", fillcolor="#399de5"] ;
161 -> 162 ;
163 [label="X[1] <= 54.5\ngini = 0.22\nsamples = 8\nvalue = [7, 1]", fillcolor="#e99355"] ;
161 -> 163 ;
164 [label="gini = 0.0\nsamples = 4\nvalue = [4, 0]", fillcolor="#e58139"] ;
163 -> 164 ;
165 [label="X[1] <= 61.8\ngini = 0.38\nsamples = 4\nvalue = [3, 1]", fillcolor="#eeab7b"] ;
163 -> 165 ;
166 [label="gini = 0.0\nsamples = 1\nvalue = [0, 1]", fillcolor="#399de5"] ;
165 -> 166 ;
167 [label="gini = 0.0\nsamples = 3\nvalue = [3, 0]", fillcolor="#e58139"] ;
165 -> 167 ;
168 [label="X[1] <= 52.28\ngini = 0.48\nsamples = 5\nvalue = [2, 3]", fillcolor="#bddef6"] ;
160 -> 168 ;
169 [label="gini = 0.0\nsamples = 1\nvalue = [1, 0]", fillcolor="#e58139"] ;
168 -> 169 ;
170 [label="X[1] <= 52.83\ngini = 0.38\nsamples = 4\nvalue = [1, 3]", fillcolor="#7bbeee"] ;
168 -> 170 ;
171 [label="gini = 0.0\nsamples = 2\nvalue = [0, 2]", fillcolor="#399de5"] ;
170 -> 171 ;
172 [label="X[2] <= 37.5\ngini = 0.5\nsamples = 2\nvalue = [1, 1]", fillcolor="#ffffff"] ;
170 -> 172 ;
173 [label="gini = 0.0\nsamples = 1\nvalue = [1, 0]", fillcolor="#e58139"] ;
172 -> 173 ;
174 [label="gini = 0.0\nsamples = 1\nvalue = [0, 1]", fillcolor="#399de5"] ;
172 -> 174 ;
175 [label="gini = 0.0\nsamples = 8\nvalue = [8, 0]", fillcolor="#e58139"] ;
159 -> 175 ;
176 [label="X[1] <= 99.99\ngini = 0.32\nsamples = 5\nvalue = [1, 4]", fillcolor="#6ab6ec"] ;
158 -> 176 ;
177 [label="gini = 0.0\nsamples = 4\nvalue = [0, 4]", fillcolor="#399de5"] ;
176 -> 177 ;
178 [label="gini = 0.0\nsamples = 1\nvalue = [1, 0]", fillcolor="#e58139"] ;
176 -> 178 ;
179 [label="gini = 0.0\nsamples = 4\nvalue = [4, 0]", fillcolor="#e58139"] ;
157 -> 179 ;
180 [label="gini = 0.0\nsamples = 2\nvalue = [0, 2]", fillcolor="#399de5"] ;
152 -> 180 ;
181 [label="gini = 0.0\nsamples = 5\nvalue = [5, 0]", fillcolor="#e58139"] ;
141 -> 181 ;
182 [label="gini = 0.0\nsamples = 2\nvalue = [0, 2]", fillcolor="#399de5"] ;
140 -> 182 ;
183 [label="X[2] <= 75.5\ngini = 0.24\nsamples = 22\nvalue = [19, 3]", fillcolor="#e99558"] ;
131 -> 183 ;
184 [label="X[1] <= 35.08\ngini = 0.17\nsamples = 21\nvalue = [19, 2]", fillcolor="#e88e4e"] ;
183 -> 184 ;
185 [label="gini = 0.0\nsamples = 12\nvalue = [12, 0]", fillcolor="#e58139"] ;
184 -> 185 ;
186 [label="X[1] <= 42.5\ngini = 0.35\nsamples = 9\nvalue = [7, 2]", fillcolor="#eca572"] ;
184 -> 186 ;
187 [label="gini = 0.0\nsamples = 1\nvalue = [0, 1]", fillcolor="#399de5"] ;
186 -> 187 ;
188 [label="X[1] <= 78.24\ngini = 0.22\nsamples = 8\nvalue = [7, 1]", fillcolor="#e99355"] ;
186 -> 188 ;
189 [label="gini = 0.0\nsamples = 5\nvalue = [5, 0]", fillcolor="#e58139"] ;
188 -> 189 ;
190 [label="X[1] <= 96.24\ngini = 0.44\nsamples = 3\nvalue = [2, 1]", fillcolor="#f2c09c"] ;
188 -> 190 ;
191 [label="gini = 0.0\nsamples = 1\nvalue = [0, 1]", fillcolor="#399de5"] ;
190 -> 191 ;
192 [label="gini = 0.0\nsamples = 2\nvalue = [2, 0]", fillcolor="#e58139"] ;
190 -> 192 ;
193 [label="gini = 0.0\nsamples = 1\nvalue = [0, 1]", fillcolor="#399de5"] ;
183 -> 193 ;
194 [label="X[2] <= 13.0\ngini = 0.21\nsamples = 330\nvalue = [291, 39]", fillcolor="#e89254"] ;
130 -> 194 ;
195 [label="X[1] <= 17.34\ngini = 0.44\nsamples = 12\nvalue = [8, 4]", fillcolor="#f2c09c"] ;
194 -> 195 ;
196 [label="gini = 0.0\nsamples = 2\nvalue = [0, 2]", fillcolor="#399de5"] ;
195 -> 196 ;
197 [label="X[0] <= 2.5\ngini = 0.32\nsamples = 10\nvalue = [8, 2]", fillcolor="#eca06a"] ;
195 -> 197 ;
198 [label="gini = 0.0\nsamples = 1\nvalue = [0, 1]", fillcolor="#399de5"] ;
197 -> 198 ;
199 [label="X[1] <= 24.21\ngini = 0.2\nsamples = 9\nvalue = [8, 1]", fillcolor="#e89152"] ;
197 -> 199 ;
200 [label="X[1] <= 19.66\ngini = 0.5\nsamples = 2\nvalue = [1, 1]", fillcolor="#ffffff"] ;
199 -> 200 ;
201 [label="gini = 0.0\nsamples = 1\nvalue = [1, 0]", fillcolor="#e58139"] ;
200 -> 201 ;
202 [label="gini = 0.0\nsamples = 1\nvalue = [0, 1]", fillcolor="#399de5"] ;
200 -> 202 ;
203 [label="gini = 0.0\nsamples = 7\nvalue = [7, 0]", fillcolor="#e58139"] ;
199 -> 203 ;
204 [label="X[1] <= 51.7\ngini = 0.2\nsamples = 318\nvalue = [283, 35]", fillcolor="#e89151"] ;
194 -> 204 ;
205 [label="X[2] <= 32.25\ngini = 0.19\nsamples = 309\nvalue = [277, 32]", fillcolor="#e89050"] ;
204 -> 205 ;
206 [label="X[2] <= 30.75\ngini = 0.22\nsamples = 204\nvalue = [178, 26]", fillcolor="#e99356"] ;
205 -> 206 ;
207 [label="X[0] <= 2.5\ngini = 0.19\nsamples = 186\nvalue = [166, 20]", fillcolor="#e89051"] ;
206 -> 207 ;
208 [label="X[2] <= 20.0\ngini = 0.05\nsamples = 39\nvalue = [38, 1]", fillcolor="#e6843e"] ;
207 -> 208 ;
209 [label="X[1] <= 11.0\ngini = 0.2\nsamples = 9\nvalue = [8, 1]", fillcolor="#e89152"] ;
208 -> 209 ;
210 [label="X[2] <= 17.5\ngini = 0.44\nsamples = 3\nvalue = [2, 1]", fillcolor="#f2c09c"] ;
209 -> 210 ;
211 [label="gini = 0.0\nsamples = 1\nvalue = [1, 0]", fillcolor="#e58139"] ;
210 -> 211 ;
212 [label="gini = 0.5\nsamples = 2\nvalue = [1, 1]", fillcolor="#ffffff"] ;
210 -> 212 ;
213 [label="gini = 0.0\nsamples = 6\nvalue = [6, 0]", fillcolor="#e58139"] ;
209 -> 213 ;
214 [label="gini = 0.0\nsamples = 30\nvalue = [30, 0]", fillcolor="#e58139"] ;
208 -> 214 ;
215 [label="X[2] <= 26.5\ngini = 0.23\nsamples = 147\nvalue = [128, 19]", fillcolor="#e99456"] ;
207 -> 215 ;
216 [label="X[1] <= 2.01\ngini = 0.19\nsamples = 114\nvalue = [102, 12]", fillcolor="#e89050"] ;
215 -> 216 ;
217 [label="X[2] <= 22.0\ngini = 0.5\nsamples = 2\nvalue = [1, 1]", fillcolor="#ffffff"] ;
216 -> 217 ;
218 [label="gini = 0.0\nsamples = 1\nvalue = [1, 0]", fillcolor="#e58139"] ;
217 -> 218 ;
219 [label="gini = 0.0\nsamples = 1\nvalue = [0, 1]", fillcolor="#399de5"] ;
217 -> 219 ;
220 [label="X[1] <= 7.13\ngini = 0.18\nsamples = 112\nvalue = [101, 11]", fillcolor="#e88f4f"] ;
216 -> 220 ;
221 [label="gini = 0.0\nsamples = 10\nvalue = [10, 0]", fillcolor="#e58139"] ;
220 -> 221 ;
222 [label="X[1] <= 7.23\ngini = 0.19\nsamples = 102\nvalue = [91, 11]", fillcolor="#e89051"] ;
220 -> 222 ;
223 [label="X[2] <= 24.5\ngini = 0.44\nsamples = 3\nvalue = [1, 2]", fillcolor="#9ccef2"] ;
222 -> 223 ;
224 [label="gini = 0.0\nsamples = 2\nvalue = [0, 2]", fillcolor="#399de5"] ;
223 -> 224 ;
225 [label="gini = 0.0\nsamples = 1\nvalue = [1, 0]", fillcolor="#e58139"] ;
223 -> 225 ;
226 [label="X[2] <= 20.25\ngini = 0.17\nsamples = 99\nvalue = [90, 9]", fillcolor="#e88e4d"] ;
222 -> 226 ;
227 [label="X[1] <= 8.1\ngini = 0.24\nsamples = 44\nvalue = [38, 6]", fillcolor="#e99558"] ;
226 -> 227 ;
228 [label="X[1] <= 7.91\ngini = 0.34\nsamples = 23\nvalue = [18, 5]", fillcolor="#eca470"] ;
227 -> 228 ;
229 [label="X[1] <= 7.44\ngini = 0.12\nsamples = 15\nvalue = [14, 1]", fillcolor="#e78a47"] ;
228 -> 229 ;
230 [label="X[2] <= 18.5\ngini = 0.44\nsamples = 3\nvalue = [2, 1]", fillcolor="#f2c09c"] ;
229 -> 230 ;
231 [label="gini = 0.0\nsamples = 2\nvalue = [2, 0]", fillcolor="#e58139"] ;
230 -> 231 ;
232 [label="gini = 0.0\nsamples = 1\nvalue = [0, 1]", fillcolor="#399de5"] ;
230 -> 232 ;
233 [label="gini = 0.0\nsamples = 12\nvalue = [12, 0]", fillcolor="#e58139"] ;
229 -> 233 ;
234 [label="X[2] <= 18.5\ngini = 0.5\nsamples = 8\nvalue = [4, 4]", fillcolor="#ffffff"] ;
228 -> 234 ;
235 [label="X[2] <= 17.0\ngini = 0.44\nsamples = 3\nvalue = [1, 2]", fillcolor="#9ccef2"] ;
234 -> 235 ;
236 [label="gini = 0.5\nsamples = 2\nvalue = [1, 1]", fillcolor="#ffffff"] ;
235 -> 236 ;
237 [label="gini = 0.0\nsamples = 1\nvalue = [0, 1]", fillcolor="#399de5"] ;
235 -> 237 ;
238 [label="X[1] <= 7.99\ngini = 0.48\nsamples = 5\nvalue = [3, 2]", fillcolor="#f6d5bd"] ;
234 -> 238 ;
239 [label="gini = 0.5\nsamples = 2\nvalue = [1, 1]", fillcolor="#ffffff"] ;
238 -> 239 ;
240 [label="X[2] <= 19.5\ngini = 0.44\nsamples = 3\nvalue = [2, 1]", fillcolor="#f2c09c"] ;
238 -> 240 ;
241 [label="gini = 0.5\nsamples = 2\nvalue = [1, 1]", fillcolor="#ffffff"] ;
240 -> 241 ;
242 [label="gini = 0.0\nsamples = 1\nvalue = [1, 0]", fillcolor="#e58139"] ;
240 -> 242 ;
243 [label="X[2] <= 19.5\ngini = 0.09\nsamples = 21\nvalue = [20, 1]", fillcolor="#e68743"] ;
227 -> 243 ;
244 [label="gini = 0.0\nsamples = 16\nvalue = [16, 0]", fillcolor="#e58139"] ;
243 -> 244 ;
245 [label="X[1] <= 12.79\ngini = 0.32\nsamples = 5\nvalue = [4, 1]", fillcolor="#eca06a"] ;
243 -> 245 ;
246 [label="gini = 0.0\nsamples = 4\nvalue = [4, 0]", fillcolor="#e58139"] ;
245 -> 246 ;
247 [label="gini = 0.0\nsamples = 1\nvalue = [0, 1]", fillcolor="#399de5"] ;
245 -> 247 ;
248 [label="X[1] <= 18.29\ngini = 0.1\nsamples = 55\nvalue = [52, 3]", fillcolor="#e68844"] ;
226 -> 248 ;
249 [label="X[1] <= 7.8\ngini = 0.07\nsamples = 52\nvalue = [50, 2]", fillcolor="#e68641"] ;
248 -> 249 ;
250 [label="X[1] <= 7.76\ngini = 0.18\nsamples = 20\nvalue = [18, 2]", fillcolor="#e88f4f"] ;
249 -> 250 ;
251 [label="gini = 0.0\nsamples = 13\nvalue = [13, 0]", fillcolor="#e58139"] ;
250 -> 251 ;
252 [label="X[2] <= 21.5\ngini = 0.41\nsamples = 7\nvalue = [5, 2]", fillcolor="#efb388"] ;
250 -> 252 ;
253 [label="X[1] <= 7.79\ngini = 0.5\nsamples = 2\nvalue = [1, 1]", fillcolor="#ffffff"] ;
252 -> 253 ;
254 [label="gini = 0.0\nsamples = 1\nvalue = [1, 0]", fillcolor="#e58139"] ;
253 -> 254 ;
255 [label="gini = 0.0\nsamples = 1\nvalue = [0, 1]", fillcolor="#399de5"] ;
253 -> 255 ;
256 [label="X[2] <= 24.5\ngini = 0.32\nsamples = 5\nvalue = [4, 1]", fillcolor="#eca06a"] ;
252 -> 256 ;
257 [label="gini = 0.0\nsamples = 2\nvalue = [2, 0]", fillcolor="#e58139"] ;
256 -> 257 ;
258 [label="X[2] <= 25.5\ngini = 0.44\nsamples = 3\nvalue = [2, 1]", fillcolor="#f2c09c"] ;
256 -> 258 ;
259 [label="gini = 0.5\nsamples = 2\nvalue = [1, 1]", fillcolor="#ffffff"] ;
258 -> 259 ;
260 [label="gini = 0.0\nsamples = 1\nvalue = [1, 0]", fillcolor="#e58139"] ;
258 -> 260 ;
261 [label="gini = 0.0\nsamples = 32\nvalue = [32, 0]", fillcolor="#e58139"] ;
249 -> 261 ;
262 [label="X[1] <= 19.68\ngini = 0.44\nsamples = 3\nvalue = [2, 1]", fillcolor="#f2c09c"] ;
248 -> 262 ;
263 [label="gini = 0.0\nsamples = 1\nvalue = [0, 1]", fillcolor="#399de5"] ;
262 -> 263 ;
264 [label="gini = 0.0\nsamples = 2\nvalue = [2, 0]", fillcolor="#e58139"] ;
262 -> 264 ;
265 [label="X[2] <= 27.5\ngini = 0.33\nsamples = 33\nvalue = [26, 7]", fillcolor="#eca36e"] ;
215 -> 265 ;
266 [label="X[1] <= 7.85\ngini = 0.48\nsamples = 5\nvalue = [2, 3]", fillcolor="#bddef6"] ;
265 -> 266 ;
267 [label="gini = 0.0\nsamples = 2\nvalue = [0, 2]", fillcolor="#399de5"] ;
266 -> 267 ;
268 [label="X[1] <= 8.28\ngini = 0.44\nsamples = 3\nvalue = [2, 1]", fillcolor="#f2c09c"] ;
266 -> 268 ;
269 [label="gini = 0.0\nsamples = 1\nvalue = [1, 0]", fillcolor="#e58139"] ;
268 -> 269 ;
270 [label="X[1] <= 11.56\ngini = 0.5\nsamples = 2\nvalue = [1, 1]", fillcolor="#ffffff"] ;
268 -> 270 ;
271 [label="gini = 0.0\nsamples = 1\nvalue = [0, 1]", fillcolor="#399de5"] ;
270 -> 271 ;
272 [label="gini = 0.0\nsamples = 1\nvalue = [1, 0]", fillcolor="#e58139"] ;
270 -> 272 ;
273 [label="X[2] <= 28.75\ngini = 0.24\nsamples = 28\nvalue = [24, 4]", fillcolor="#e9965a"] ;
265 -> 273 ;
274 [label="gini = 0.0\nsamples = 11\nvalue = [11, 0]", fillcolor="#e58139"] ;
273 -> 274 ;
275 [label="X[1] <= 9.49\ngini = 0.36\nsamples = 17\nvalue = [13, 4]", fillcolor="#eda876"] ;
273 -> 275 ;
276 [label="X[2] <= 29.5\ngini = 0.24\nsamples = 14\nvalue = [12, 2]", fillcolor="#e9965a"] ;
275 -> 276 ;
277 [label="X[1] <= 7.97\ngini = 0.41\nsamples = 7\nvalue = [5, 2]", fillcolor="#efb388"] ;
276 -> 277 ;
278 [label="X[1] <= 7.89\ngini = 0.48\nsamples = 5\nvalue = [3, 2]", fillcolor="#f6d5bd"] ;
277 -> 278 ;
279 [label="X[1] <= 7.76\ngini = 0.38\nsamples = 4\nvalue = [3, 1]", fillcolor="#eeab7b"] ;
278 -> 279 ;
280 [label="X[1] <= 7.4\ngini = 0.5\nsamples = 2\nvalue = [1, 1]", fillcolor="#ffffff"] ;
279 -> 280 ;
281 [label="gini = 0.0\nsamples = 1\nvalue = [1, 0]", fillcolor="#e58139"] ;
280 -> 281 ;
282 [label="gini = 0.0\nsamples = 1\nvalue = [0, 1]", fillcolor="#399de5"] ;
280 -> 282 ;
283 [label="gini = 0.0\nsamples = 2\nvalue = [2, 0]", fillcolor="#e58139"] ;
279 -> 283 ;
284 [label="gini = 0.0\nsamples = 1\nvalue = [0, 1]", fillcolor="#399de5"] ;
278 -> 284 ;
285 [label="gini = 0.0\nsamples = 2\nvalue = [2, 0]", fillcolor="#e58139"] ;
277 -> 285 ;
286 [label="gini = 0.0\nsamples = 7\nvalue = [7, 0]", fillcolor="#e58139"] ;
276 -> 286 ;
287 [label="X[1] <= 12.8\ngini = 0.44\nsamples = 3\nvalue = [1, 2]", fillcolor="#9ccef2"] ;
275 -> 287 ;
288 [label="gini = 0.0\nsamples = 2\nvalue = [0, 2]", fillcolor="#399de5"] ;
287 -> 288 ;
289 [label="gini = 0.0\nsamples = 1\nvalue = [1, 0]", fillcolor="#e58139"] ;
287 -> 289 ;
290 [label="X[1] <= 7.81\ngini = 0.44\nsamples = 18\nvalue = [12, 6]", fillcolor="#f2c09c"] ;
206 -> 290 ;
291 [label="gini = 0.0\nsamples = 3\nvalue = [3, 0]", fillcolor="#e58139"] ;
290 -> 291 ;
292 [label="X[1] <= 7.88\ngini = 0.48\nsamples = 15\nvalue = [9, 6]", fillcolor="#f6d5bd"] ;
290 -> 292 ;
293 [label="gini = 0.0\nsamples = 1\nvalue = [0, 1]", fillcolor="#399de5"] ;
292 -> 293 ;
294 [label="X[1] <= 26.12\ngini = 0.46\nsamples = 14\nvalue = [9, 5]", fillcolor="#f3c7a7"] ;
292 -> 294 ;
295 [label="X[1] <= 20.93\ngini = 0.49\nsamples = 12\nvalue = [7, 5]", fillcolor="#f8dbc6"] ;
294 -> 295 ;
296 [label="X[2] <= 31.5\ngini = 0.46\nsamples = 11\nvalue = [7, 4]", fillcolor="#f4c9aa"] ;
295 -> 296 ;
297 [label="X[1] <= 9.21\ngini = 0.44\nsamples = 3\nvalue = [1, 2]", fillcolor="#9ccef2"] ;
296 -> 297 ;
298 [label="gini = 0.0\nsamples = 1\nvalue = [0, 1]", fillcolor="#399de5"] ;
297 -> 298 ;
299 [label="X[1] <= 11.75\ngini = 0.5\nsamples = 2\nvalue = [1, 1]", fillcolor="#ffffff"] ;
297 -> 299 ;
300 [label="gini = 0.0\nsamples = 1\nvalue = [1, 0]", fillcolor="#e58139"] ;
299 -> 300 ;
301 [label="gini = 0.0\nsamples = 1\nvalue = [0, 1]", fillcolor="#399de5"] ;
299 -> 301 ;
302 [label="X[1] <= 8.21\ngini = 0.38\nsamples = 8\nvalue = [6, 2]", fillcolor="#eeab7b"] ;
296 -> 302 ;
303 [label="X[1] <= 7.99\ngini = 0.48\nsamples = 5\nvalue = [3, 2]", fillcolor="#f6d5bd"] ;
302 -> 303 ;
304 [label="X[1] <= 7.91\ngini = 0.38\nsamples = 4\nvalue = [3, 1]", fillcolor="#eeab7b"] ;
303 -> 304 ;
305 [label="gini = 0.0\nsamples = 1\nvalue = [1, 0]", fillcolor="#e58139"] ;
304 -> 305 ;
306 [label="gini = 0.44\nsamples = 3\nvalue = [2, 1]", fillcolor="#f2c09c"] ;
304 -> 306 ;
307 [label="gini = 0.0\nsamples = 1\nvalue = [0, 1]", fillcolor="#399de5"] ;
303 -> 307 ;
308 [label="gini = 0.0\nsamples = 3\nvalue = [3, 0]", fillcolor="#e58139"] ;
302 -> 308 ;
309 [label="gini = 0.0\nsamples = 1\nvalue = [0, 1]", fillcolor="#399de5"] ;
295 -> 309 ;
310 [label="gini = 0.0\nsamples = 2\nvalue = [2, 0]", fillcolor="#e58139"] ;
294 -> 310 ;
311 [label="X[1] <= 7.91\ngini = 0.11\nsamples = 105\nvalue = [99, 6]", fillcolor="#e78945"] ;
205 -> 311 ;
312 [label="gini = 0.0\nsamples = 32\nvalue = [32, 0]", fillcolor="#e58139"] ;
311 -> 312 ;
313 [label="X[1] <= 7.99\ngini = 0.15\nsamples = 73\nvalue = [67, 6]", fillcolor="#e78c4b"] ;
311 -> 313 ;
314 [label="X[2] <= 38.0\ngini = 0.5\nsamples = 4\nvalue = [2, 2]", fillcolor="#ffffff"] ;
313 -> 314 ;
315 [label="gini = 0.0\nsamples = 1\nvalue = [1, 0]", fillcolor="#e58139"] ;
314 -> 315 ;
316 [label="X[2] <= 41.5\ngini = 0.44\nsamples = 3\nvalue = [1, 2]", fillcolor="#9ccef2"] ;
314 -> 316 ;
317 [label="gini = 0.5\nsamples = 2\nvalue = [1, 1]", fillcolor="#ffffff"] ;
316 -> 317 ;
318 [label="gini = 0.0\nsamples = 1\nvalue = [0, 1]", fillcolor="#399de5"] ;
316 -> 318 ;
319 [label="X[2] <= 61.0\ngini = 0.11\nsamples = 69\nvalue = [65, 4]", fillcolor="#e78945"] ;
313 -> 319 ;
320 [label="X[1] <= 13.25\ngini = 0.09\nsamples = 66\nvalue = [63, 3]", fillcolor="#e68742"] ;
319 -> 320 ;
321 [label="X[1] <= 12.94\ngini = 0.16\nsamples = 35\nvalue = [32, 3]", fillcolor="#e78d4c"] ;
320 -> 321 ;
322 [label="X[2] <= 44.5\ngini = 0.08\nsamples = 24\nvalue = [23, 1]", fillcolor="#e68642"] ;
321 -> 322 ;
323 [label="gini = 0.0\nsamples = 17\nvalue = [17, 0]", fillcolor="#e58139"] ;
322 -> 323 ;
324 [label="X[2] <= 46.0\ngini = 0.24\nsamples = 7\nvalue = [6, 1]", fillcolor="#e9965a"] ;
322 -> 324 ;
325 [label="gini = 0.0\nsamples = 1\nvalue = [0, 1]", fillcolor="#399de5"] ;
324 -> 325 ;
326 [label="gini = 0.0\nsamples = 6\nvalue = [6, 0]", fillcolor="#e58139"] ;
324 -> 326 ;
327 [label="X[2] <= 45.0\ngini = 0.3\nsamples = 11\nvalue = [9, 2]", fillcolor="#eb9d65"] ;
321 -> 327 ;
328 [label="X[2] <= 40.5\ngini = 0.38\nsamples = 8\nvalue = [6, 2]", fillcolor="#eeab7b"] ;
327 -> 328 ;
329 [label="X[2] <= 35.0\ngini = 0.28\nsamples = 6\nvalue = [5, 1]", fillcolor="#ea9a61"] ;
328 -> 329 ;
330 [label="gini = 0.44\nsamples = 3\nvalue = [2, 1]", fillcolor="#f2c09c"] ;
329 -> 330 ;
331 [label="gini = 0.0\nsamples = 3\nvalue = [3, 0]", fillcolor="#e58139"] ;
329 -> 331 ;
332 [label="gini = 0.5\nsamples = 2\nvalue = [1, 1]", fillcolor="#ffffff"] ;
328 -> 332 ;
333 [label="gini = 0.0\nsamples = 3\nvalue = [3, 0]", fillcolor="#e58139"] ;
327 -> 333 ;
334 [label="gini = 0.0\nsamples = 31\nvalue = [31, 0]", fillcolor="#e58139"] ;
320 -> 334 ;
335 [label="X[2] <= 64.0\ngini = 0.44\nsamples = 3\nvalue = [2, 1]", fillcolor="#f2c09c"] ;
319 -> 335 ;
336 [label="gini = 0.0\nsamples = 1\nvalue = [0, 1]", fillcolor="#399de5"] ;
335 -> 336 ;
337 [label="gini = 0.0\nsamples = 2\nvalue = [2, 0]", fillcolor="#e58139"] ;
335 -> 337 ;
338 [label="X[1] <= 65.0\ngini = 0.44\nsamples = 9\nvalue = [6, 3]", fillcolor="#f2c09c"] ;
204 -> 338 ;
339 [label="X[2] <= 30.0\ngini = 0.38\nsamples = 4\nvalue = [1, 3]", fillcolor="#7bbeee"] ;
338 -> 339 ;
340 [label="X[2] <= 27.0\ngini = 0.5\nsamples = 2\nvalue = [1, 1]", fillcolor="#ffffff"] ;
339 -> 340 ;
341 [label="gini = 0.0\nsamples = 1\nvalue = [0, 1]", fillcolor="#399de5"] ;
340 -> 341 ;
342 [label="gini = 0.0\nsamples = 1\nvalue = [1, 0]", fillcolor="#e58139"] ;
340 -> 342 ;
343 [label="gini = 0.0\nsamples = 2\nvalue = [0, 2]", fillcolor="#399de5"] ;
339 -> 343 ;
344 [label="gini = 0.0\nsamples = 5\nvalue = [5, 0]", fillcolor="#e58139"] ;
338 -> 344 ;
}